Language model created by QuickLM on Thu Mar 27 15:39:16 EDT 2014
Copyright (c) 1996-2010 Carnegie Mellon University and Alexander I. Rudnicky

The model is in standard ARPA format, designed by Doug Paul while he was at MITRE.

The code that was used to produce this language model is available in Open Source.
Please visit http://www.speech.cs.cmu.edu/tools/ for more information

The (fixed) discount mass is 0.5. The backoffs are computed using the ratio method.
This model based on a corpus of 4 sentences and 6 words

\data\
ngram 1=6
ngram 2=8
ngram 3=4

\1-grams:
-0.7782 </s> -0.3010
-0.7782 <s> -0.2218
-1.3802 CRACKLE -0.2218
-1.3802 EXHALE -0.2218
-1.3802 INHALE -0.2218
-1.3802 WHEEZE -0.2218

\2-grams:
-0.9031 <s> CRACKLE 0.0000
-0.9031 <s> EXHALE 0.0000
-0.9031 <s> INHALE 0.0000
-0.9031 <s> WHEEZE 0.0000
-0.3010 CRACKLE </s> -0.3010
-0.3010 EXHALE </s> -0.3010
-0.3010 INHALE </s> -0.3010
-0.3010 WHEEZE </s> -0.3010

\3-grams:
-0.3010 <s> CRACKLE </s>
-0.3010 <s> EXHALE </s>
-0.3010 <s> INHALE </s>
-0.3010 <s> WHEEZE </s>

\end\
